{
  "description": "Per-animal GLM-HMM (K=3) fits, pupil drives transitions, stim+bias drive observations. Initialized from global 'New' params, fit with EM on each animal's sessions.",
  "config": {
    "K": 3,
    "M_transition": 1,
    "C": 2,
    "N_em_iters": 150,
    "transition_alpha": 2.0,
    "prior_sigma": 2.0
  },
  "animals": {
    "240": {
      "n_sessions": 17,
      "n_trials": 2129,
      "observation_weights": {
        "state_0": {
          "pupil": 0.8598507129904289,
          "stim": -5.061593197181691,
          "bias": -1.3467711136095513
        },
        "state_1": {
          "pupil": 0.31551179330392454,
          "stim": -18.47591456717448,
          "bias": 2.135641421071219
        },
        "state_2": {
          "pupil": 0.3462902620541516,
          "stim": -2.661728388766643,
          "bias": 3.4438832862033837
        }
      },
      "transition_matrix_at_u0": [
        [
          0.9923632828068915,
          0.0034229949981920424,
          0.004213722194916605
        ],
        [
          0.0028758427138233437,
          0.9895644851106951,
          0.007559672175481699
        ],
        [
          0.004625193662019441,
          0.00527450430574844,
          0.990100302032232
        ]
      ],
      "transition_input_weights": [
        [
          -0.808633053316986,
          -0.14105678448276296,
          -0.8398212146633006
        ],
        [
          -0.827563088740939,
          0.5137880753242309,
          -0.130853184112033
        ],
        [
          -0.7197294023138497,
          -0.5290177898605717,
          -0.330728091149501
        ]
      ],
      "log_likelihood": -724.7272325781585,
      "per_trial_log_likelihood": -0.3404073426858424,
      "n_em_iters": 18
    },
    "241": {
      "n_sessions": 7,
      "n_trials": 722,
      "observation_weights": {
        "state_0": {
          "pupil": 0.9599375488857591,
          "stim": 0.3097884174656108,
          "bias": 0.25380943809025175
        },
        "state_1": {
          "pupil": 0.2605613836344702,
          "stim": -12.002607862363785,
          "bias": 1.4708999185256058
        },
        "state_2": {
          "pupil": 0.839109376279554,
          "stim": -6.043019416922098,
          "bias": 3.0329070062300887
        }
      },
      "transition_matrix_at_u0": [
        [
          0.3110476994795038,
          0.2730245505609982,
          0.4159277499594979
        ],
        [
          0.21628752709256377,
          0.758893347153687,
          0.024819125753749227
        ],
        [
          0.42918340925840986,
          0.0037395600097822595,
          0.5670770307318079
        ]
      ],
      "transition_input_weights": [
        [
          2.493484190072239,
          1.4761932956031167,
          -4.805359467656534
        ],
        [
          0.2932947759296996,
          0.45761516818619435,
          2.6044411525832367
        ],
        [
          -0.0022805698129162544,
          -2.0149609513225557,
          2.006008265444252
        ]
      ],
      "log_likelihood": -293.83804130645643,
      "per_trial_log_likelihood": -0.40697789654633854,
      "n_em_iters": 106
    },
    "242": {
      "n_sessions": 12,
      "n_trials": 1678,
      "observation_weights": {
        "state_0": {
          "pupil": 0.6630558604775901,
          "stim": 0.1724780859637756,
          "bias": 2.097229649558483
        },
        "state_1": {
          "pupil": 0.45194051967400317,
          "stim": -17.19208039261872,
          "bias": 2.0474204611466313
        },
        "state_2": {
          "pupil": 0.7342566776292776,
          "stim": -4.132410564472185,
          "bias": 3.412174750303559
        }
      },
      "transition_matrix_at_u0": [
        [
          0.32916673992560624,
          0.36345965282712617,
          0.3073736072472676
        ],
        [
          0.2854177137199339,
          0.6998114473875094,
          0.014770838892556664
        ],
        [
          0.18903470685600574,
          0.03827116077704788,
          0.7726941323669464
        ]
      ],
      "transition_input_weights": [
        [
          -0.0324384339809838,
          1.0025037288173235,
          -1.7079405312192386
        ],
        [
          -0.8921351862386177,
          -0.02119775119074033,
          2.1539479380786983
        ],
        [
          -0.19455988925652173,
          -1.0034305834148454,
          2.017371709970637
        ]
      ],
      "log_likelihood": -657.951324971116,
      "per_trial_log_likelihood": -0.3921044844881502,
      "n_em_iters": 151
    },
    "243": {
      "n_sessions": 16,
      "n_trials": 2142,
      "observation_weights": {
        "state_0": {
          "pupil": 0.23334962171279386,
          "stim": -8.200752771666908,
          "bias": -0.6608317219452344
        },
        "state_1": {
          "pupil": 0.2994585007819638,
          "stim": -17.336787901747332,
          "bias": 2.064483605667594
        },
        "state_2": {
          "pupil": 1.3181172622372965,
          "stim": -0.13393251837510764,
          "bias": 2.104473536521608
        }
      },
      "transition_matrix_at_u0": [
        [
          0.9796090744947216,
          0.003982847818375251,
          0.016408077686903208
        ],
        [
          0.004592049462797125,
          0.8775684322740028,
          0.11783951826320008
        ],
        [
          0.02699796245144492,
          0.28406802443717427,
          0.6889340131113809
        ]
      ],
      "transition_input_weights": [
        [
          0.32926125364258735,
          -0.4451944457982609,
          1.500942197503635
        ],
        [
          0.0303284960919756,
          0.08629037406403467,
          1.6934380118967407
        ],
        [
          0.9682533802836832,
          0.2556552706545807,
          -0.12097698061929238
        ]
      ],
      "log_likelihood": -849.7659551113853,
      "per_trial_log_likelihood": -0.3967161321715151,
      "n_em_iters": 59
    }
  }
}